<?xml version="1.0"?>
<opencv_storage>
<!-- Created using Computer Vision System Toolbox(tm) for MATLAB(R) -->
<!-- Version 8.6.0.267246 (R2015b) -->
<!-- Compatible with OpenCV 2.4 -->
<cascade>
  <stageType>BOOST</stageType>
  <featureType>HAAR</featureType>
  <height>32</height>
  <width>33</width>
  <stageParams>
    <boostType>GAB</boostType>
    <minHitRate>9.9500000476837158e-01</minHitRate>
    <maxFalseAlarm>2.0000000298023224e-01</maxFalseAlarm>
    <weightTrimRate>9.4999999999999996e-01</weightTrimRate>
    <maxDepth>1</maxDepth>
    <maxWeakCount>100</maxWeakCount></stageParams>
  <featureParams>
    <maxCatCount>0</maxCatCount>
    <featSize>1</featSize>
    <mode>BASIC</mode></featureParams>
  <stageNum>6</stageNum>
  <stages>
    <!-- stage 0 -->
    <_>
      <maxWeakCount>1</maxWeakCount>
      <stageThreshold>9.0833336114883423e-01</stageThreshold>
      <weakClassifiers>
        <_>
          <internalNodes>
            0 -1 7 -1.1223141849040985e-01</internalNodes>
          <leafValues>
            9.0833336114883423e-01 -1.</leafValues></_></weakClassifiers></_>
    <!-- stage 1 -->
    <_>
      <maxWeakCount>2</maxWeakCount>
      <stageThreshold>-1.2134755030274391e-02</stageThreshold>
      <weakClassifiers>
        <_>
          <internalNodes>
            0 -1 3 -6.3003428280353546e-02</internalNodes>
          <leafValues>
            9.1416311264038086e-01 -9.7356826066970825e-01</leafValues></_>
        <_>
          <internalNodes>
            0 -1 15 -4.5179821550846100e-02</internalNodes>
          <leafValues>
            9.6143352985382080e-01 -9.0849131345748901e-01</leafValues></_></weakClassifiers></_>
    <!-- stage 2 -->
    <_>
      <maxWeakCount>4</maxWeakCount>
      <stageThreshold>-2.8782808780670166e-01</stageThreshold>
      <weakClassifiers>
        <_>
          <internalNodes>
            0 -1 0 -2.4308022856712341e-01</internalNodes>
          <leafValues>
            5.0853240489959717e-01 -9.5939087867736816e-01</leafValues></_>
        <_>
          <internalNodes>
            0 -1 1 -4.5752704143524170e-02</internalNodes>
          <leafValues>
            8.2908785343170166e-01 -7.6895439624786377e-01</leafValues></_>
        <_>
          <internalNodes>
            0 -1 14 -1.4481728896498680e-02</internalNodes>
          <leafValues>
            7.4115419387817383e-01 -8.1694966554641724e-01</leafValues></_>
        <_>
          <internalNodes>
            0 -1 13 1.3801268301904202e-02</internalNodes>
          <leafValues>
            -6.8645805120468140e-01 7.8954356908798218e-01</leafValues></_></weakClassifiers></_>
    <!-- stage 3 -->
    <_>
      <maxWeakCount>4</maxWeakCount>
      <stageThreshold>-5.4169678688049316e-01</stageThreshold>
      <weakClassifiers>
        <_>
          <internalNodes>
            0 -1 8 -1.6416000202298164e-02</internalNodes>
          <leafValues>
            7.5107294321060181e-01 -8.8986784219741821e-01</leafValues></_>
        <_>
          <internalNodes>
            0 -1 10 -1.3435928151011467e-02</internalNodes>
          <leafValues>
            8.0239421129226685e-01 -7.6928186416625977e-01</leafValues></_>
        <_>
          <internalNodes>
            0 -1 18 2.0771965384483337e-02</internalNodes>
          <leafValues>
            -9.0268224477767944e-01 5.9654045104980469e-01</leafValues></_>
        <_>
          <internalNodes>
            0 -1 5 -8.9463740587234497e-02</internalNodes>
          <leafValues>
            5.2091246843338013e-01 -9.2680627107620239e-01</leafValues></_></weakClassifiers></_>
    <!-- stage 4 -->
    <_>
      <maxWeakCount>5</maxWeakCount>
      <stageThreshold>-1.0804800987243652e+00</stageThreshold>
      <weakClassifiers>
        <_>
          <internalNodes>
            0 -1 4 -1.8763355910778046e-02</internalNodes>
          <leafValues>
            7.3333334922790527e-01 -7.9741376638412476e-01</leafValues></_>
        <_>
          <internalNodes>
            0 -1 17 8.8882595300674438e-03</internalNodes>
          <leafValues>
            -7.8866446018218994e-01 5.9591704607009888e-01</leafValues></_>
        <_>
          <internalNodes>
            0 -1 2 -1.6750121489167213e-02</internalNodes>
          <leafValues>
            6.9081211090087891e-01 -7.2159707546234131e-01</leafValues></_>
        <_>
          <internalNodes>
            0 -1 16 -1.3029380701482296e-02</internalNodes>
          <leafValues>
            5.7364368438720703e-01 -8.1317687034606934e-01</leafValues></_>
        <_>
          <internalNodes>
            0 -1 11 3.4235261846333742e-03</internalNodes>
          <leafValues>
            -6.3604921102523804e-01 6.2796294689178467e-01</leafValues></_></weakClassifiers></_>
    <!-- stage 5 -->
    <_>
      <maxWeakCount>3</maxWeakCount>
      <stageThreshold>9.0581893920898438e-01</stageThreshold>
      <weakClassifiers>
        <_>
          <internalNodes>
            0 -1 12 7.7779525890946388e-03</internalNodes>
          <leafValues>
            -5.7499998807907104e-01 8.7610620260238647e-01</leafValues></_>
        <_>
          <internalNodes>
            0 -1 9 9.0415209531784058e-02</internalNodes>
          <leafValues>
            -1. 6.3459670543670654e-01</leafValues></_>
        <_>
          <internalNodes>
            0 -1 6 -2.1514993160963058e-02</internalNodes>
          <leafValues>
            9.6527522802352905e-01 -6.0488396883010864e-01</leafValues></_></weakClassifiers></_></stages>
  <features>
    <_>
      <rects>
        <_>
          0 2 33 29 -1.</_>
        <_>
          11 2 11 29 3.</_></rects>
      <tilted>0</tilted></_>
    <_>
      <rects>
        <_>
          1 8 9 17 -1.</_>
        <_>
          4 8 3 17 3.</_></rects>
      <tilted>0</tilted></_>
    <_>
      <rects>
        <_>
          6 0 4 15 -1.</_>
        <_>
          6 5 4 5 3.</_></rects>
      <tilted>0</tilted></_>
    <_>
      <rects>
        <_>
          7 13 21 6 -1.</_>
        <_>
          14 13 7 6 3.</_></rects>
      <tilted>0</tilted></_>
    <_>
      <rects>
        <_>
          9 23 5 9 -1.</_>
        <_>
          9 26 5 3 3.</_></rects>
      <tilted>0</tilted></_>
    <_>
      <rects>
        <_>
          10 7 15 18 -1.</_>
        <_>
          10 13 15 6 3.</_></rects>
      <tilted>0</tilted></_>
    <_>
      <rects>
        <_>
          11 2 13 6 -1.</_>
        <_>
          11 4 13 2 3.</_></rects>
      <tilted>0</tilted></_>
    <_>
      <rects>
        <_>
          12 1 9 30 -1.</_>
        <_>
          12 11 9 10 3.</_></rects>
      <tilted>0</tilted></_>
    <_>
      <rects>
        <_>
          12 25 10 6 -1.</_>
        <_>
          12 27 10 2 3.</_></rects>
      <tilted>0</tilted></_>
    <_>
      <rects>
        <_>
          13 2 20 30 -1.</_>
        <_>
          23 2 10 30 2.</_></rects>
      <tilted>0</tilted></_>
    <_>
      <rects>
        <_>
          14 1 8 6 -1.</_>
        <_>
          14 3 8 2 3.</_></rects>
      <tilted>0</tilted></_>
    <_>
      <rects>
        <_>
          20 6 2 6 -1.</_>
        <_>
          20 8 2 2 3.</_></rects>
      <tilted>0</tilted></_>
    <_>
      <rects>
        <_>
          22 20 10 6 -1.</_>
        <_>
          22 20 5 3 2.</_>
        <_>
          27 23 5 3 2.</_></rects>
      <tilted>0</tilted></_>
    <_>
      <rects>
        <_>
          22 21 6 8 -1.</_>
        <_>
          22 21 3 4 2.</_>
        <_>
          25 25 3 4 2.</_></rects>
      <tilted>0</tilted></_>
    <_>
      <rects>
        <_>
          24 5 6 10 -1.</_>
        <_>
          24 5 3 5 2.</_>
        <_>
          27 10 3 5 2.</_></rects>
      <tilted>0</tilted></_>
    <_>
      <rects>
        <_>
          24 8 9 15 -1.</_>
        <_>
          27 8 3 15 3.</_></rects>
      <tilted>0</tilted></_>
    <_>
      <rects>
        <_>
          25 0 3 18 -1.</_>
        <_>
          25 6 3 6 3.</_></rects>
      <tilted>0</tilted></_>
    <_>
      <rects>
        <_>
          25 15 4 12 -1.</_>
        <_>
          25 15 2 6 2.</_>
        <_>
          27 21 2 6 2.</_></rects>
      <tilted>0</tilted></_>
    <_>
      <rects>
        <_>
          27 5 6 23 -1.</_>
        <_>
          30 5 3 23 2.</_></rects>
      <tilted>0</tilted></_></features></cascade>
</opencv_storage>
